<?xml version="1.0"?>
<opencv_storage>
<stage19>
  <maxWeakCount>73</maxWeakCount>
  <stageThreshold>-5.1444852352142334e-01</stageThreshold>
  <weakClassifiers>
    <_>
      <internalNodes>
        0 -1 108316 -6.1981678009033203e-03</internalNodes>
      <leafValues>
        -5.2834216098023918e-17 4.4370493292808533e-01</leafValues></_>
    <_>
      <internalNodes>
        0 -1 107937 -7.4133806629106402e-04</internalNodes>
      <leafValues>
        2.9738613963127136e-01 -4.5102246105670929e-02</leafValues></_>
    <_>
      <internalNodes>
        0 -1 51382 5.8066189289093018e-02</internalNodes>
      <leafValues>
        -8.5657931864261627e-02 3.1728920340538025e-01</leafValues></_>
    <_>
      <internalNodes>
        0 -1 123838 -9.8050646483898163e-03</internalNodes>
      <leafValues>
        3.4534558653831482e-01 -5.9446435421705246e-02</leafValues></_>
    <_>
      <internalNodes>
        0 -1 44825 3.0507169663906097e-02</internalNodes>
      <leafValues>
        4.0474902838468552e-02 -3.3384153246879578e-01</leafValues></_>
    <_>
      <internalNodes>
        0 -1 76292 1.3470617122948170e-03</internalNodes>
      <leafValues>
        3.7465650588274002e-02 -5.0829690694808960e-01</leafValues></_>
    <_>
      <internalNodes>
        0 -1 44636 -8.2880044355988503e-03</internalNodes>
      <leafValues>
        -5.8192664384841919e-01 3.0761908739805222e-02</leafValues></_>
    <_>
      <internalNodes>
        0 -1 120476 1.0765938786789775e-03</internalNodes>
      <leafValues>
        -6.8502418696880341e-02 2.7274987101554871e-01</leafValues></_>
    <_>
      <internalNodes>
        0 -1 99125 4.1697883716551587e-05</internalNodes>
      <leafValues>
        -1.4216372370719910e-01 1.6962601244449615e-01</leafValues></_>
    <_>
      <internalNodes>
        0 -1 59198 -3.9076232351362705e-03</internalNodes>
      <leafValues>
        2.6451846957206726e-01 -7.8919366002082825e-02</leafValues></_>
    <_>
      <internalNodes>
        0 -1 69082 7.2305537760257721e-03</internalNodes>
      <leafValues>
        -4.1064873337745667e-01 5.9126172214746475e-02</leafValues></_>
    <_>
      <internalNodes>
        0 -1 116641 2.5231419131159782e-03</internalNodes>
      <leafValues>
        -1.0287029296159744e-01 2.4994240701198578e-01</leafValues></_>
    <_>
      <internalNodes>
        0 -1 108169 -8.4421283099800348e-04</internalNodes>
      <leafValues>
        1.8722164630889893e-01 -1.2464842945337296e-01</leafValues></_>
    <_>
      <internalNodes>
        0 -1 90542 6.3428105786442757e-03</internalNodes>
      <leafValues>
        4.3609168380498886e-02 -6.5133702754974365e-01</leafValues></_>
    <_>
      <internalNodes>
        0 -1 123080 6.2784533947706223e-03</internalNodes>
      <leafValues>
        -8.8223829865455627e-02 2.5533056259155273e-01</leafValues></_>
    <_>
      <internalNodes>
        0 -1 93299 4.6493848785758018e-03</internalNodes>
      <leafValues>
        -8.7245203554630280e-02 2.1557928621768951e-01</leafValues></_>
    <_>
      <internalNodes>
        0 -1 79479 -4.6642334200441837e-03</internalNodes>
      <leafValues>
        1.8879111111164093e-01 -1.0442344099283218e-01</leafValues></_>
    <_>
      <internalNodes>
        0 -1 71931 -2.1327521651983261e-02</internalNodes>
      <leafValues>
        1.9429503381252289e-01 -1.0187368839979172e-01</leafValues></_>
    <_>
      <internalNodes>
        0 -1 102961 -5.6151102762669325e-04</internalNodes>
      <leafValues>
        -3.8109126687049866e-01 5.2914675325155258e-02</leafValues></_>
    <_>
      <internalNodes>
        0 -1 72225 4.6273991465568542e-03</internalNodes>
      <leafValues>
        -5.4348036646842957e-02 3.2652905583381653e-01</leafValues></_>
    <_>
      <internalNodes>
        0 -1 70653 -3.7305196747183800e-03</internalNodes>
      <leafValues>
        2.3672014474868774e-01 -8.1862159073352814e-02</leafValues></_>
    <_>
      <internalNodes>
        0 -1 36834 -1.2587586045265198e-01</internalNodes>
      <leafValues>
        -6.8444067239761353e-01 3.1183861196041107e-02</leafValues></_>
    <_>
      <internalNodes>
        0 -1 78313 -3.4488271921873093e-04</internalNodes>
      <leafValues>
        2.6002904772758484e-01 -7.3711104691028595e-02</leafValues></_>
    <_>
      <internalNodes>
        0 -1 102187 -2.0029519218951464e-03</internalNodes>
      <leafValues>
        2.2888013720512390e-01 -7.9105347394943237e-02</leafValues></_>
    <_>
      <internalNodes>
        0 -1 13323 1.2884014844894409e-01</internalNodes>
      <leafValues>
        -9.7188271582126617e-02 2.1089704334735870e-01</leafValues></_>
    <_>
      <internalNodes>
        0 -1 65925 8.7115191854536533e-04</internalNodes>
      <leafValues>
        -1.3484580814838409e-01 1.5687572956085205e-01</leafValues></_>
    <_>
      <internalNodes>
        0 -1 70814 -1.7451520543545485e-03</internalNodes>
      <leafValues>
        -5.0834226608276367e-01 4.2441610246896744e-02</leafValues></_>
    <_>
      <internalNodes>
        0 -1 54635 4.2753323214128613e-05</internalNodes>
      <leafValues>
        -1.1755123734474182e-01 1.7416210472583771e-01</leafValues></_>
    <_>
      <internalNodes>
        0 -1 43927 -1.9944758969359100e-04</internalNodes>
      <leafValues>
        -2.0730765163898468e-01 1.0367961972951889e-01</leafValues></_>
    <_>
      <internalNodes>
        0 -1 43386 5.3014988079667091e-03</internalNodes>
      <leafValues>
        4.3786048889160156e-02 -4.8626089096069336e-01</leafValues></_>
    <_>
      <internalNodes>
        0 -1 16037 -7.3334440821781754e-04</internalNodes>
      <leafValues>
        1.9838874042034149e-01 -9.6294000744819641e-02</leafValues></_>
    <_>
      <internalNodes>
        0 -1 69495 -5.0998814404010773e-03</internalNodes>
      <leafValues>
        -6.7782312631607056e-01 2.7388082817196846e-02</leafValues></_>
    <_>
      <internalNodes>
        0 -1 44103 -2.4664963129907846e-03</internalNodes>
      <leafValues>
        2.5688362121582031e-01 -8.5116669535636902e-02</leafValues></_>
    <_>
      <internalNodes>
        0 -1 53351 1.0941424407064915e-03</internalNodes>
      <leafValues>
        -1.5697211027145386e-01 1.7126223444938660e-01</leafValues></_>
    <_>
      <internalNodes>
        0 -1 76297 9.4273296417668462e-04</internalNodes>
      <leafValues>
        -1.2665432691574097e-01 1.5409098565578461e-01</leafValues></_>
    <_>
      <internalNodes>
        0 -1 130 2.9105961322784424e-02</internalNodes>
      <leafValues>
        5.3484339267015457e-02 -3.5416185855865479e-01</leafValues></_>
    <_>
      <internalNodes>
        0 -1 76354 2.4817027151584625e-03</internalNodes>
      <leafValues>
        -9.2359215021133423e-02 2.2066549956798553e-01</leafValues></_>
    <_>
      <internalNodes>
        0 -1 117014 4.3355961679480970e-05</internalNodes>
      <leafValues>
        -1.5500105917453766e-01 1.3113200664520264e-01</leafValues></_>
    <_>
      <internalNodes>
        0 -1 63109 -1.2237909249961376e-03</internalNodes>
      <leafValues>
        -2.7900600433349609e-01 7.1352124214172363e-02</leafValues></_>
    <_>
      <internalNodes>
        0 -1 44950 1.6841222532093525e-03</internalNodes>
      <leafValues>
        -1.1841625720262527e-01 1.7216423153877258e-01</leafValues></_>
    <_>
      <internalNodes>
        0 -1 117221 9.4264699146151543e-04</internalNodes>
      <leafValues>
        -6.6990613937377930e-02 2.9840084910392761e-01</leafValues></_>
    <_>
      <internalNodes>
        0 -1 53821 2.4821623810566962e-04</internalNodes>
      <leafValues>
        1.9913533329963684e-01 -1.1134815216064453e-01</leafValues></_>
    <_>
      <internalNodes>
        0 -1 62602 1.3272717478685081e-04</internalNodes>
      <leafValues>
        -1.7999523878097534e-01 1.3001435995101929e-01</leafValues></_>
    <_>
      <internalNodes>
        0 -1 102664 1.1002604151144624e-04</internalNodes>
      <leafValues>
        -2.3169480264186859e-01 8.6779057979583740e-02</leafValues></_>
    <_>
      <internalNodes>
        0 -1 98237 -4.4451335270423442e-05</internalNodes>
      <leafValues>
        2.0635904371738434e-01 -9.5771238207817078e-02</leafValues></_>
    <_>
      <internalNodes>
        0 -1 77531 -1.1228525545448065e-04</internalNodes>
      <leafValues>
        1.8916396796703339e-01 -1.1673451960086823e-01</leafValues></_>
    <_>
      <internalNodes>
        0 -1 83788 -2.1014228696003556e-04</internalNodes>
      <leafValues>
        2.0498542487621307e-01 -1.2302739173173904e-01</leafValues></_>
    <_>
      <internalNodes>
        0 -1 104635 1.8147724404116161e-05</internalNodes>
      <leafValues>
        -1.7557251453399658e-01 1.2475626170635223e-01</leafValues></_>
    <_>
      <internalNodes>
        0 -1 76656 -4.7733066603541374e-03</internalNodes>
      <leafValues>
        -4.3723443150520325e-01 4.4492926448583603e-02</leafValues></_>
    <_>
      <internalNodes>
        0 -1 104635 1.4993124641478062e-03</internalNodes>
      <leafValues>
        3.2132174819707870e-02 -5.2478218078613281e-01</leafValues></_>
    <_>
      <internalNodes>
        0 -1 98945 -1.3799676671624184e-03</internalNodes>
      <leafValues>
        2.1848033368587494e-01 -9.4902276992797852e-02</leafValues></_>
    <_>
      <internalNodes>
        0 -1 84058 5.5361203849315643e-03</internalNodes>
      <leafValues>
        4.7727085649967194e-02 -4.6293354034423828e-01</leafValues></_>
    <_>
      <internalNodes>
        0 -1 14619 4.5113465748727322e-03</internalNodes>
      <leafValues>
        -8.6031295359134674e-02 2.2529251873493195e-01</leafValues></_>
    <_>
      <internalNodes>
        0 -1 77844 -4.7016449389047921e-04</internalNodes>
      <leafValues>
        2.4516701698303223e-01 -7.0977695286273956e-02</leafValues></_>
    <_>
      <internalNodes>
        0 -1 34947 -1.2876771390438080e-02</internalNodes>
      <leafValues>
        -6.0602092742919922e-01 2.9440985992550850e-02</leafValues></_>
    <_>
      <internalNodes>
        0 -1 60319 -1.8243879079818726e-02</internalNodes>
      <leafValues>
        2.5605389475822449e-01 -7.9001575708389282e-02</leafValues></_>
    <_>
      <internalNodes>
        0 -1 60923 -4.5078666880726814e-04</internalNodes>
      <leafValues>
        2.2357609868049622e-01 -1.1077540367841721e-01</leafValues></_>
    <_>
      <internalNodes>
        0 -1 31508 8.7083410471677780e-03</internalNodes>
      <leafValues>
        -1.1141492426395416e-01 2.1758186817169189e-01</leafValues></_>
    <_>
      <internalNodes>
        0 -1 103402 -2.0907915313728154e-05</internalNodes>
      <leafValues>
        1.8465569615364075e-01 -1.1347152292728424e-01</leafValues></_>
    <_>
      <internalNodes>
        0 -1 81657 -3.8678005803376436e-03</internalNodes>
      <leafValues>
        2.2936548292636871e-01 -7.7796563506126404e-02</leafValues></_>
    <_>
      <internalNodes>
        0 -1 5788 7.4667232111096382e-03</internalNodes>
      <leafValues>
        -8.2554623484611511e-02 2.4534411728382111e-01</leafValues></_>
    <_>
      <internalNodes>
        0 -1 61458 1.0207192972302437e-03</internalNodes>
      <leafValues>
        -3.6623650789260864e-01 6.0344737023115158e-02</leafValues></_>
    <_>
      <internalNodes>
        0 -1 105239 -5.4780403152108192e-03</internalNodes>
      <leafValues>
        2.6754930615425110e-01 -8.6727842688560486e-02</leafValues></_>
    <_>
      <internalNodes>
        0 -1 115918 -1.8780163954943419e-03</internalNodes>
      <leafValues>
        2.3239864408969879e-01 -8.7182797491550446e-02</leafValues></_>
    <_>
      <internalNodes>
        0 -1 118087 1.4920592075213790e-03</internalNodes>
      <leafValues>
        -7.9062394797801971e-02 2.1835084259510040e-01</leafValues></_>
    <_>
      <internalNodes>
        0 -1 102065 -1.3532598968595266e-03</internalNodes>
      <leafValues>
        -2.3872438073158264e-01 7.3998905718326569e-02</leafValues></_>
    <_>
      <internalNodes>
        0 -1 65999 -1.2384827248752117e-02</internalNodes>
      <leafValues>
        2.5483962893486023e-01 -9.0085826814174652e-02</leafValues></_>
    <_>
      <internalNodes>
        0 -1 95733 -9.3106739223003387e-03</internalNodes>
      <leafValues>
        1.7916300892829895e-01 -1.1607463657855988e-01</leafValues></_>
    <_>
      <internalNodes>
        0 -1 92571 1.8135981634259224e-02</internalNodes>
      <leafValues>
        -1.6869634389877319e-01 1.2458422780036926e-01</leafValues></_>
    <_>
      <internalNodes>
        0 -1 102374 -3.7199552170932293e-03</internalNodes>
      <leafValues>
        2.3048280179500580e-01 -1.0427405685186386e-01</leafValues></_>
    <_>
      <internalNodes>
        0 -1 53931 -5.6149410083889961e-03</internalNodes>
      <leafValues>
        2.3177573084831238e-01 -7.9301998019218445e-02</leafValues></_>
    <_>
      <internalNodes>
        0 -1 49849 -7.6993122696876526e-02</internalNodes>
      <leafValues>
        -7.2977423667907715e-01 3.2341636717319489e-02</leafValues></_>
    <_>
      <internalNodes>
        0 -1 93597 1.2215317692607641e-03</internalNodes>
      <leafValues>
        -8.7635233998298645e-02 2.3672287166118622e-01</leafValues></_></weakClassifiers></stage19>
</opencv_storage>
