<?xml version="1.0"?>
<opencv_storage>
<stage3>
  <maxWeakCount>19</maxWeakCount>
  <stageThreshold>-7.1039974689483643e-01</stageThreshold>
  <weakClassifiers>
    <_>
      <internalNodes>
        0 -1 63226 -6.3051454722881317e-02</internalNodes>
      <leafValues>
        6.8623673915863037e-01 9.0530693531036377e-02</leafValues></_>
    <_>
      <internalNodes>
        0 -1 81169 1.0363085567951202e-01</internalNodes>
      <leafValues>
        1.9838167726993561e-01 -5.9299015998840332e-01</leafValues></_>
    <_>
      <internalNodes>
        0 -1 80311 1.3153127394616604e-02</internalNodes>
      <leafValues>
        -1.9442676007747650e-01 3.7105998396873474e-01</leafValues></_>
    <_>
      <internalNodes>
        0 -1 61315 6.7085241898894310e-03</internalNodes>
      <leafValues>
        7.9000346362590790e-02 -9.0465801954269409e-01</leafValues></_>
    <_>
      <internalNodes>
        0 -1 60863 1.1011700145900249e-02</internalNodes>
      <leafValues>
        -3.7163662910461426e-01 1.8184153735637665e-01</leafValues></_>
    <_>
      <internalNodes>
        0 -1 68880 6.5824026241898537e-03</internalNodes>
      <leafValues>
        6.5826520323753357e-02 -8.8602304458618164e-01</leafValues></_>
    <_>
      <internalNodes>
        0 -1 79083 6.9641042500734329e-03</internalNodes>
      <leafValues>
        -1.7919562757015228e-01 3.4308561682701111e-01</leafValues></_>
    <_>
      <internalNodes>
        0 -1 15482 -9.2192217707633972e-03</internalNodes>
      <leafValues>
        4.2848220467567444e-01 -1.6110116243362427e-01</leafValues></_>
    <_>
      <internalNodes>
        0 -1 16604 1.9558668136596680e-03</internalNodes>
      <leafValues>
        -1.9956639409065247e-01 3.3958396315574646e-01</leafValues></_>
    <_>
      <internalNodes>
        0 -1 92216 -1.0270490311086178e-03</internalNodes>
      <leafValues>
        -8.8597053289413452e-01 6.6108532249927521e-02</leafValues></_>
    <_>
      <internalNodes>
        0 -1 120179 -4.3908907100558281e-03</internalNodes>
      <leafValues>
        4.1824904084205627e-01 -1.6302682459354401e-01</leafValues></_>
    <_>
      <internalNodes>
        0 -1 119969 7.6341778039932251e-03</internalNodes>
      <leafValues>
        -1.3418202102184296e-01 4.2439141869544983e-01</leafValues></_>
    <_>
      <internalNodes>
        0 -1 113339 -1.8498383462429047e-02</internalNodes>
      <leafValues>
        5.0495386123657227e-01 -1.2335186451673508e-01</leafValues></_>
    <_>
      <internalNodes>
        0 -1 84366 -6.1725955456495285e-03</internalNodes>
      <leafValues>
        -7.1173918247222900e-01 8.9155919849872589e-02</leafValues></_>
    <_>
      <internalNodes>
        0 -1 108179 1.6681181732565165e-03</internalNodes>
      <leafValues>
        -2.4502784013748169e-01 2.5476375222206116e-01</leafValues></_>
    <_>
      <internalNodes>
        0 -1 89940 -1.0153341107070446e-02</internalNodes>
      <leafValues>
        4.5784884691238403e-01 -1.6315685212612152e-01</leafValues></_>
    <_>
      <internalNodes>
        0 -1 97840 6.8354466930031776e-03</internalNodes>
      <leafValues>
        8.9847736060619354e-02 -8.4320831298828125e-01</leafValues></_>
    <_>
      <internalNodes>
        0 -1 71876 6.5598799847066402e-03</internalNodes>
      <leafValues>
        -1.6455309092998505e-01 3.8561838865280151e-01</leafValues></_>
    <_>
      <internalNodes>
        0 -1 53467 -1.4595165848731995e-02</internalNodes>
      <leafValues>
        4.8778718709945679e-01 -1.4660266041755676e-01</leafValues></_></weakClassifiers></stage3>
</opencv_storage>
