<?xml version="1.0"?>
<opencv_storage>
<stage10>
  <maxWeakCount>39</maxWeakCount>
  <stageThreshold>-5.3264582157135010e-01</stageThreshold>
  <weakClassifiers>
    <_>
      <internalNodes>
        0 -1 69960 -3.7137004546821117e-03</internalNodes>
      <leafValues>
        -5.3383457660675049e-01 4.3211790919303894e-01</leafValues></_>
    <_>
      <internalNodes>
        0 -1 51923 -2.0867455750703812e-02</internalNodes>
      <leafValues>
        4.2488670349121094e-01 -5.4494481533765793e-02</leafValues></_>
    <_>
      <internalNodes>
        0 -1 62004 4.9409675411880016e-03</internalNodes>
      <leafValues>
        -1.3800999522209167e-01 3.2345393300056458e-01</leafValues></_>
    <_>
      <internalNodes>
        0 -1 50538 1.0718920826911926e-01</internalNodes>
      <leafValues>
        7.2910569608211517e-02 -5.7317525148391724e-01</leafValues></_>
    <_>
      <internalNodes>
        0 -1 112264 2.1710589528083801e-02</internalNodes>
      <leafValues>
        4.7450702637434006e-02 -6.4997041225433350e-01</leafValues></_>
    <_>
      <internalNodes>
        0 -1 109491 1.0973809286952019e-02</internalNodes>
      <leafValues>
        -2.6713544130325317e-01 1.1931058764457703e-01</leafValues></_>
    <_>
      <internalNodes>
        0 -1 7511 9.0045286342501640e-03</internalNodes>
      <leafValues>
        -1.0096120834350586e-01 3.0118578672409058e-01</leafValues></_>
    <_>
      <internalNodes>
        0 -1 7035 -7.5785433873534203e-03</internalNodes>
      <leafValues>
        2.4901600182056427e-01 -1.9381862878799438e-01</leafValues></_>
    <_>
      <internalNodes>
        0 -1 5841 8.9883217588067055e-03</internalNodes>
      <leafValues>
        -1.6315524280071259e-01 2.5159952044487000e-01</leafValues></_>
    <_>
      <internalNodes>
        0 -1 91123 3.7112011341378093e-04</internalNodes>
      <leafValues>
        -9.1703899204730988e-02 2.9150375723838806e-01</leafValues></_>
    <_>
      <internalNodes>
        0 -1 93886 1.2114868313074112e-01</internalNodes>
      <leafValues>
        -1.1046567559242249e-01 4.5810419321060181e-01</leafValues></_>
    <_>
      <internalNodes>
        0 -1 34032 -7.2977449744939804e-03</internalNodes>
      <leafValues>
        3.1110903620719910e-01 -9.8194830119609833e-02</leafValues></_>
    <_>
      <internalNodes>
        0 -1 42836 3.8316044956445694e-03</internalNodes>
      <leafValues>
        -3.2963803410530090e-01 1.1708982288837433e-01</leafValues></_>
    <_>
      <internalNodes>
        0 -1 45113 -8.7885819375514984e-03</internalNodes>
      <leafValues>
        3.4026622772216797e-01 -1.1245623230934143e-01</leafValues></_>
    <_>
      <internalNodes>
        0 -1 54583 1.6632666811347008e-02</internalNodes>
      <leafValues>
        -1.3772699236869812e-01 2.8632485866546631e-01</leafValues></_>
    <_>
      <internalNodes>
        0 -1 93494 5.6198367383331060e-04</internalNodes>
      <leafValues>
        -1.1021958291530609e-01 2.9793906211853027e-01</leafValues></_>
    <_>
      <internalNodes>
        0 -1 67962 -1.2307490222156048e-02</internalNodes>
      <leafValues>
        -5.2815079689025879e-01 6.3039131462574005e-02</leafValues></_>
    <_>
      <internalNodes>
        0 -1 84085 -5.3252819925546646e-03</internalNodes>
      <leafValues>
        3.4081867337226868e-01 -9.8239660263061523e-02</leafValues></_>
    <_>
      <internalNodes>
        0 -1 58337 -7.0264944806694984e-03</internalNodes>
      <leafValues>
        3.2661736011505127e-01 -1.0576380789279938e-01</leafValues></_>
    <_>
      <internalNodes>
        0 -1 67228 4.8936605453491211e-03</internalNodes>
      <leafValues>
        -1.3791815936565399e-01 2.5496947765350342e-01</leafValues></_>
    <_>
      <internalNodes>
        0 -1 98847 -1.3940657954663038e-03</internalNodes>
      <leafValues>
        -5.4701572656631470e-01 6.3649155199527740e-02</leafValues></_>
    <_>
      <internalNodes>
        0 -1 65517 5.2469884976744652e-03</internalNodes>
      <leafValues>
        -1.1434362083673477e-01 2.7607023715972900e-01</leafValues></_>
    <_>
      <internalNodes>
        0 -1 98030 6.9842371158301830e-03</internalNodes>
      <leafValues>
        -1.4504398405551910e-01 2.1385580301284790e-01</leafValues></_>
    <_>
      <internalNodes>
        0 -1 120582 -5.1720002666115761e-03</internalNodes>
      <leafValues>
        3.3014789223670959e-01 -1.0325834900140762e-01</leafValues></_>
    <_>
      <internalNodes>
        0 -1 103447 1.3985492289066315e-02</internalNodes>
      <leafValues>
        -1.0195677727460861e-01 2.8628751635551453e-01</leafValues></_>
    <_>
      <internalNodes>
        0 -1 114195 7.2303568013012409e-03</internalNodes>
      <leafValues>
        -1.2399271875619888e-01 3.1083676218986511e-01</leafValues></_>
    <_>
      <internalNodes>
        0 -1 48037 -2.3427386768162251e-03</internalNodes>
      <leafValues>
        3.0108767747879028e-01 -1.1755590140819550e-01</leafValues></_>
    <_>
      <internalNodes>
        0 -1 48838 9.2739704996347427e-03</internalNodes>
      <leafValues>
        -1.2995502352714539e-01 2.4428005516529083e-01</leafValues></_>
    <_>
      <internalNodes>
        0 -1 76306 2.4952422827482224e-03</internalNodes>
      <leafValues>
        4.4748976826667786e-02 -7.0526528358459473e-01</leafValues></_>
    <_>
      <internalNodes>
        0 -1 89503 -1.2799720279872417e-03</internalNodes>
      <leafValues>
        2.7978911995887756e-01 -1.2422886490821838e-01</leafValues></_>
    <_>
      <internalNodes>
        0 -1 110067 7.2303297929465771e-04</internalNodes>
      <leafValues>
        -1.6895318031311035e-01 1.7376144230365753e-01</leafValues></_>
    <_>
      <internalNodes>
        0 -1 70460 -1.8088715150952339e-03</internalNodes>
      <leafValues>
        -6.8911021947860718e-01 4.2293008416891098e-02</leafValues></_>
    <_>
      <internalNodes>
        0 -1 60367 8.9774592197500169e-05</internalNodes>
      <leafValues>
        -3.6572188138961792e-01 6.6407859325408936e-02</leafValues></_>
    <_>
      <internalNodes>
        0 -1 52436 -3.9867218583822250e-03</internalNodes>
      <leafValues>
        3.3902594447135925e-01 -1.0199314355850220e-01</leafValues></_>
    <_>
      <internalNodes>
        0 -1 60947 -8.0634374171495438e-03</internalNodes>
      <leafValues>
        -5.8219319581985474e-01 5.8075152337551117e-02</leafValues></_>
    <_>
      <internalNodes>
        0 -1 59918 -3.2277763821184635e-03</internalNodes>
      <leafValues>
        3.3104816079139709e-01 -1.2147858738899231e-01</leafValues></_>
    <_>
      <internalNodes>
        0 -1 36261 2.0333034917712212e-03</internalNodes>
      <leafValues>
        -1.2741295993328094e-01 2.4551400542259216e-01</leafValues></_>
    <_>
      <internalNodes>
        0 -1 52340 -2.7271699160337448e-02</internalNodes>
      <leafValues>
        4.7102525830268860e-01 -6.1781052500009537e-02</leafValues></_>
    <_>
      <internalNodes>
        0 -1 24251 -2.9380018822848797e-03</internalNodes>
      <leafValues>
        3.1749626994132996e-01 -9.9361509084701538e-02</leafValues></_></weakClassifiers></stage10>
</opencv_storage>
