<?xml version="1.0"?>
<opencv_storage>
<stage6>
  <maxWeakCount>23</maxWeakCount>
  <stageThreshold>-7.0072156190872192e-01</stageThreshold>
  <weakClassifiers>
    <_>
      <internalNodes>
        0 -1 59366 -7.8970855101943016e-03</internalNodes>
      <leafValues>
        -5.4692554473876953e-01 4.7927391529083252e-01</leafValues></_>
    <_>
      <internalNodes>
        0 -1 75675 -5.1377795170992613e-04</internalNodes>
      <leafValues>
        4.3491101264953613e-01 -1.7624349892139435e-01</leafValues></_>
    <_>
      <internalNodes>
        0 -1 93746 3.2421771902590990e-04</internalNodes>
      <leafValues>
        -3.4605821967124939e-01 2.0900751650333405e-01</leafValues></_>
    <_>
      <internalNodes>
        0 -1 94435 1.0749840177595615e-02</internalNodes>
      <leafValues>
        1.0593268275260925e-01 -7.0982509851455688e-01</leafValues></_>
    <_>
      <internalNodes>
        0 -1 118496 -8.5209216922521591e-04</internalNodes>
      <leafValues>
        -7.2070759534835815e-01 7.0099182426929474e-02</leafValues></_>
    <_>
      <internalNodes>
        0 -1 129040 -4.9008114729076624e-04</internalNodes>
      <leafValues>
        2.2670194506645203e-01 -2.5470218062400818e-01</leafValues></_>
    <_>
      <internalNodes>
        0 -1 129052 4.6271756291389465e-03</internalNodes>
      <leafValues>
        -2.1296049654483795e-01 3.1463098526000977e-01</leafValues></_>
    <_>
      <internalNodes>
        0 -1 97007 1.1370982974767685e-03</internalNodes>
      <leafValues>
        9.5955625176429749e-02 -7.5464874505996704e-01</leafValues></_>
    <_>
      <internalNodes>
        0 -1 94335 8.1708263605833054e-03</internalNodes>
      <leafValues>
        -1.8486085534095764e-01 3.5173806548118591e-01</leafValues></_>
    <_>
      <internalNodes>
        0 -1 95629 6.7081884481012821e-04</internalNodes>
      <leafValues>
        -2.1074819564819336e-01 2.8998094797134399e-01</leafValues></_>
    <_>
      <internalNodes>
        0 -1 99279 -5.5739721283316612e-03</internalNodes>
      <leafValues>
        4.7558489441871643e-01 -1.2749406695365906e-01</leafValues></_>
    <_>
      <internalNodes>
        0 -1 113019 1.0440668556839228e-03</internalNodes>
      <leafValues>
        8.7765112519264221e-02 -8.2391208410263062e-01</leafValues></_>
    <_>
      <internalNodes>
        0 -1 74865 4.6210884465835989e-04</internalNodes>
      <leafValues>
        -2.1630808711051941e-01 2.7110153436660767e-01</leafValues></_>
    <_>
      <internalNodes>
        0 -1 98123 -9.1798894573003054e-04</internalNodes>
      <leafValues>
        -5.5955559015274048e-01 8.4876462817192078e-02</leafValues></_>
    <_>
      <internalNodes>
        0 -1 67461 7.7967951074242592e-04</internalNodes>
      <leafValues>
        -1.9730521738529205e-01 2.8318744897842407e-01</leafValues></_>
    <_>
      <internalNodes>
        0 -1 68228 -1.4088899479247630e-04</internalNodes>
      <leafValues>
        2.3933731019496918e-01 -2.7560633420944214e-01</leafValues></_>
    <_>
      <internalNodes>
        0 -1 102621 -2.8967810794711113e-04</internalNodes>
      <leafValues>
        3.0801254510879517e-01 -1.9243301451206207e-01</leafValues></_>
    <_>
      <internalNodes>
        0 -1 97695 1.9653672352433205e-03</internalNodes>
      <leafValues>
        7.7132828533649445e-02 -8.2931047677993774e-01</leafValues></_>
    <_>
      <internalNodes>
        0 -1 115477 2.2659695241600275e-03</internalNodes>
      <leafValues>
        -2.0177698135375977e-01 2.5786983966827393e-01</leafValues></_>
    <_>
      <internalNodes>
        0 -1 89755 1.6227924788836390e-04</internalNodes>
      <leafValues>
        -2.1450218558311462e-01 2.6271903514862061e-01</leafValues></_>
    <_>
      <internalNodes>
        0 -1 116923 1.1132394429296255e-03</internalNodes>
      <leafValues>
        -2.2433972358703613e-01 2.6424041390419006e-01</leafValues></_>
    <_>
      <internalNodes>
        0 -1 98322 -5.3274288075044751e-04</internalNodes>
      <leafValues>
        -3.7261626124382019e-01 1.5645839273929596e-01</leafValues></_>
    <_>
      <internalNodes>
        0 -1 110097 4.4114971533417702e-03</internalNodes>
      <leafValues>
        -1.5227097272872925e-01 3.6225685477256775e-01</leafValues></_></weakClassifiers></stage6>
</opencv_storage>
