<?xml version="1.0"?>
<opencv_storage>
<stage12>
  <maxWeakCount>32</maxWeakCount>
  <stageThreshold>-6.1492526531219482e-01</stageThreshold>
  <weakClassifiers>
    <_>
      <internalNodes>
        0 -1 74864 -8.0346327740699053e-04</internalNodes>
      <leafValues>
        -1.4974182844161987e-01 4.9341914057731628e-01</leafValues></_>
    <_>
      <internalNodes>
        0 -1 108258 -1.5720712253823876e-03</internalNodes>
      <leafValues>
        3.3354949951171875e-01 -1.2218665331602097e-01</leafValues></_>
    <_>
      <internalNodes>
        0 -1 122882 -4.9529684474691749e-04</internalNodes>
      <leafValues>
        -4.6757587790489197e-01 1.1271152645349503e-01</leafValues></_>
    <_>
      <internalNodes>
        0 -1 96387 1.0726309847086668e-03</internalNodes>
      <leafValues>
        -1.5209907293319702e-01 2.7797406911849976e-01</leafValues></_>
    <_>
      <internalNodes>
        0 -1 114313 -8.1569544272497296e-04</internalNodes>
      <leafValues>
        -6.3276129961013794e-01 5.6431367993354797e-02</leafValues></_>
    <_>
      <internalNodes>
        0 -1 95743 -7.3721082881093025e-03</internalNodes>
      <leafValues>
        -8.7536561489105225e-01 3.9930533617734909e-02</leafValues></_>
    <_>
      <internalNodes>
        0 -1 96383 8.2207669038325548e-04</internalNodes>
      <leafValues>
        -1.5853546559810638e-01 2.5773036479949951e-01</leafValues></_>
    <_>
      <internalNodes>
        0 -1 113589 -2.6021685334853828e-04</internalNodes>
      <leafValues>
        2.4348673224449158e-01 -1.9184990227222443e-01</leafValues></_>
    <_>
      <internalNodes>
        0 -1 84095 -2.2645546123385429e-03</internalNodes>
      <leafValues>
        -4.4642928242683411e-01 9.1194644570350647e-02</leafValues></_>
    <_>
      <internalNodes>
        0 -1 114391 1.5135455178096890e-03</internalNodes>
      <leafValues>
        -1.6583356261253357e-01 2.5750750303268433e-01</leafValues></_>
    <_>
      <internalNodes>
        0 -1 118866 -1.0533439926803112e-03</internalNodes>
      <leafValues>
        -4.8907917737960815e-01 1.0577752441167831e-01</leafValues></_>
    <_>
      <internalNodes>
        0 -1 119028 -8.1693090032786131e-04</internalNodes>
      <leafValues>
        3.2356506586074829e-01 -1.8250353634357452e-01</leafValues></_>
    <_>
      <internalNodes>
        0 -1 87923 8.1196997780352831e-04</internalNodes>
      <leafValues>
        -2.6534777879714966e-01 2.0893841981887817e-01</leafValues></_>
    <_>
      <internalNodes>
        0 -1 90495 -5.3632189519703388e-04</internalNodes>
      <leafValues>
        2.9986208677291870e-01 -1.3199110329151154e-01</leafValues></_>
    <_>
      <internalNodes>
        0 -1 21862 4.4342108070850372e-02</internalNodes>
      <leafValues>
        -8.3409473299980164e-02 5.2831178903579712e-01</leafValues></_>
    <_>
      <internalNodes>
        0 -1 49267 1.3467216631397605e-03</internalNodes>
      <leafValues>
        -1.3401474058628082e-01 3.4378170967102051e-01</leafValues></_>
    <_>
      <internalNodes>
        0 -1 67078 -2.9471231391653419e-04</internalNodes>
      <leafValues>
        2.3490342497825623e-01 -2.0516644418239594e-01</leafValues></_>
    <_>
      <internalNodes>
        0 -1 92380 5.6037437170743942e-03</internalNodes>
      <leafValues>
        -1.1240243911743164e-01 3.7501895427703857e-01</leafValues></_>
    <_>
      <internalNodes>
        0 -1 96679 -7.8035652404651046e-04</internalNodes>
      <leafValues>
        -8.2308864593505859e-01 5.2113961428403854e-02</leafValues></_>
    <_>
      <internalNodes>
        0 -1 110187 2.3096849326975644e-04</internalNodes>
      <leafValues>
        -1.7584848403930664e-01 2.3169995844364166e-01</leafValues></_>
    <_>
      <internalNodes>
        0 -1 69392 -1.4986810856498778e-04</internalNodes>
      <leafValues>
        -2.4588631093502045e-01 1.5777361392974854e-01</leafValues></_>
    <_>
      <internalNodes>
        0 -1 76095 -7.1875499561429024e-03</internalNodes>
      <leafValues>
        -7.8497135639190674e-01 4.3210644274950027e-02</leafValues></_>
    <_>
      <internalNodes>
        0 -1 78306 2.0817276090383530e-03</internalNodes>
      <leafValues>
        -9.5814049243927002e-02 4.0435367822647095e-01</leafValues></_>
    <_>
      <internalNodes>
        0 -1 114547 8.3218625513836741e-04</internalNodes>
      <leafValues>
        -1.7455324530601501e-01 2.3710863292217255e-01</leafValues></_>
    <_>
      <internalNodes>
        0 -1 112395 -6.2626687576994300e-04</internalNodes>
      <leafValues>
        2.2828577458858490e-01 -1.8123282492160797e-01</leafValues></_>
    <_>
      <internalNodes>
        0 -1 88464 3.1550088897347450e-03</internalNodes>
      <leafValues>
        -1.6095304489135742e-01 2.7115786075592041e-01</leafValues></_>
    <_>
      <internalNodes>
        0 -1 114691 -1.4852525200694799e-03</internalNodes>
      <leafValues>
        -6.6145366430282593e-01 7.8968308866024017e-02</leafValues></_>
    <_>
      <internalNodes>
        0 -1 79539 8.1546383444219828e-04</internalNodes>
      <leafValues>
        -2.4402171373367310e-01 1.5506976842880249e-01</leafValues></_>
    <_>
      <internalNodes>
        0 -1 101838 2.2289855405688286e-03</internalNodes>
      <leafValues>
        5.4000016301870346e-02 -6.7931270599365234e-01</leafValues></_>
    <_>
      <internalNodes>
        0 -1 85626 -2.7455878444015980e-03</internalNodes>
      <leafValues>
        2.7385601401329041e-01 -1.3784162700176239e-01</leafValues></_>
    <_>
      <internalNodes>
        0 -1 52499 3.0364671256393194e-03</internalNodes>
      <leafValues>
        -1.1835411936044693e-01 3.2265049219131470e-01</leafValues></_>
    <_>
      <internalNodes>
        0 -1 28578 1.5551374852657318e-01</internalNodes>
      <leafValues>
        -9.8733164370059967e-02 3.9176127314567566e-01</leafValues></_></weakClassifiers></stage12>
</opencv_storage>
